digraph Tree {
node [shape=box, style="filled, rounded", color="black", fontname="helvetica"] ;
edge [fontname="helvetica"] ;
0 [label="petal width (cm) <= 0.7\ngini = 0.66\nsamples = 102\nvalue = [54, 54, 42]\nclass = setosa", fillcolor="#ffffff"] ;
1 [label="gini = 0.0\nsamples = 39\nvalue = [54, 0, 0]\nclass = setosa", fillcolor="#e58139"] ;
0 -> 1 [labeldistance=2.5, labelangle=45, headlabel="True"] ;
2 [label="petal width (cm) <= 1.75\ngini = 0.49\nsamples = 63\nvalue = [0, 54, 42]\nclass = versicolor", fillcolor="#d3f9e3"] ;
0 -> 2 [labeldistance=2.5, labelangle=-45, headlabel="False"] ;
3 [label="petal width (cm) <= 1.55\ngini = 0.16\nsamples = 34\nvalue = [0, 54, 5]\nclass = versicolor", fillcolor="#4be78d"] ;
2 -> 3 ;
4 [label="petal length (cm) <= 5.2\ngini = 0.04\nsamples = 29\nvalue = [0, 49, 1]\nclass = versicolor", fillcolor="#3de684"] ;
3 -> 4 ;
5 [label="gini = 0.0\nsamples = 28\nvalue = [0, 49, 0]\nclass = versicolor", fillcolor="#39e581"] ;
4 -> 5 ;
6 [label="gini = 0.0\nsamples = 1\nvalue = [0, 0, 1]\nclass = virginica", fillcolor="#8139e5"] ;
4 -> 6 ;
7 [label="sepal length (cm) <= 6.95\ngini = 0.49\nsamples = 5\nvalue = [0, 5, 4]\nclass = versicolor", fillcolor="#d7fae6"] ;
3 -> 7 ;
8 [label="petal length (cm) <= 4.6\ngini = 0.28\nsamples = 4\nvalue = [0, 5, 1]\nclass = versicolor", fillcolor="#61ea9a"] ;
7 -> 8 ;
9 [label="sepal width (cm) <= 2.95\ngini = 0.5\nsamples = 2\nvalue = [0, 1, 1]\nclass = versicolor", fillcolor="#ffffff"] ;
8 -> 9 ;
10 [label="gini = 0.0\nsamples = 1\nvalue = [0, 0, 1]\nclass = virginica", fillcolor="#8139e5"] ;
9 -> 10 ;
11 [label="gini = 0.0\nsamples = 1\nvalue = [0, 1, 0]\nclass = versicolor", fillcolor="#39e581"] ;
9 -> 11 ;
12 [label="gini = 0.0\nsamples = 2\nvalue = [0, 4, 0]\nclass = versicolor", fillcolor="#39e581"] ;
8 -> 12 ;
13 [label="gini = 0.0\nsamples = 1\nvalue = [0, 0, 3]\nclass = virginica", fillcolor="#8139e5"] ;
7 -> 13 ;
14 [label="gini = 0.0\nsamples = 29\nvalue = [0, 0, 37]\nclass = virginica", fillcolor="#8139e5"] ;
2 -> 14 ;
}